digraph Tree {
node [shape=box] ;
0 [label="hashtag_count <= 26.5\ngini = 0.4518\nsamples = 435\nvalue = [285, 150]"] ;
1 [label="non_alpha_characters_count <= 38.5\ngini = 0.3797\nsamples = 369\nvalue = [275, 94]"] ;
0 -> 1 [labeldistance=2.5, labelangle=45, headlabel="True"] ;
2 [label="hashtag_count <= 3.5\ngini = 0.2365\nsamples = 197\nvalue = [170, 27]"] ;
1 -> 2 ;
3 [label="non_alpha_characters_count <= 0.5\ngini = 0.1349\nsamples = 110\nvalue = [102, 8]"] ;
2 -> 3 ;
4 [label="gini = 0.0\nsamples = 1\nvalue = [0, 1]"] ;
3 -> 4 ;
5 [label="words_count <= 23.5\ngini = 0.1202\nsamples = 109\nvalue = [102, 7]"] ;
3 -> 5 ;
6 [label="gini = 0.0815\nsamples = 94\nvalue = [90, 4]"] ;
5 -> 6 ;
7 [label="gini = 0.32\nsamples = 15\nvalue = [12, 3]"] ;
5 -> 7 ;
8 [label="words_count <= 4.5\ngini = 0.3414\nsamples = 87\nvalue = [68, 19]"] ;
2 -> 8 ;
9 [label="gini = 0.0\nsamples = 3\nvalue = [0, 3]"] ;
8 -> 9 ;
10 [label="avg_distance <= 0.2559\ngini = 0.3084\nsamples = 84\nvalue = [68, 16]"] ;
8 -> 10 ;
11 [label="gini = 0.0\nsamples = 2\nvalue = [0, 2]"] ;
10 -> 11 ;
12 [label="gini = 0.2832\nsamples = 82\nvalue = [68, 14]"] ;
10 -> 12 ;
13 [label="avg_distance <= 0.5755\ngini = 0.4756\nsamples = 172\nvalue = [105, 67]"] ;
1 -> 13 ;
14 [label="non_alpha_characters_count <= 155.0\ngini = 0.4961\nsamples = 136\nvalue = [74, 62]"] ;
13 -> 14 ;
15 [label="words_count <= 49.5\ngini = 0.4826\nsamples = 118\nvalue = [70, 48]"] ;
14 -> 15 ;
16 [label="gini = 0.499\nsamples = 90\nvalue = [47, 43]"] ;
15 -> 16 ;
17 [label="gini = 0.2934\nsamples = 28\nvalue = [23, 5]"] ;
15 -> 17 ;
18 [label="characters_count <= 921.0\ngini = 0.3457\nsamples = 18\nvalue = [4, 14]"] ;
14 -> 18 ;
19 [label="gini = 0.1244\nsamples = 15\nvalue = [1, 14]"] ;
18 -> 19 ;
20 [label="gini = 0.0\nsamples = 3\nvalue = [3, 0]"] ;
18 -> 20 ;
21 [label="words_count <= 25.5\ngini = 0.2392\nsamples = 36\nvalue = [31, 5]"] ;
13 -> 21 ;
22 [label="max_distance <= 0.9244\ngini = 0.4444\nsamples = 6\nvalue = [2, 4]"] ;
21 -> 22 ;
23 [label="gini = 0.0\nsamples = 4\nvalue = [0, 4]"] ;
22 -> 23 ;
24 [label="gini = 0.0\nsamples = 2\nvalue = [2, 0]"] ;
22 -> 24 ;
25 [label="min_distance <= -0.0652\ngini = 0.0644\nsamples = 30\nvalue = [29, 1]"] ;
21 -> 25 ;
26 [label="gini = 0.0\nsamples = 1\nvalue = [0, 1]"] ;
25 -> 26 ;
27 [label="gini = 0.0\nsamples = 29\nvalue = [29, 0]"] ;
25 -> 27 ;
28 [label="uppercase_letters <= 11.5\ngini = 0.2571\nsamples = 66\nvalue = [10, 56]"] ;
0 -> 28 [labeldistance=2.5, labelangle=-45, headlabel="False"] ;
29 [label="words_count <= 23.5\ngini = 0.375\nsamples = 40\nvalue = [10, 30]"] ;
28 -> 29 ;
30 [label="characters_count <= 260.0\ngini = 0.1528\nsamples = 24\nvalue = [2, 22]"] ;
29 -> 30 ;
31 [label="gini = 0.0\nsamples = 15\nvalue = [0, 15]"] ;
30 -> 31 ;
32 [label="max_distance <= 0.7988\ngini = 0.3457\nsamples = 9\nvalue = [2, 7]"] ;
30 -> 32 ;
33 [label="gini = 0.0\nsamples = 1\nvalue = [1, 0]"] ;
32 -> 33 ;
34 [label="gini = 0.2188\nsamples = 8\nvalue = [1, 7]"] ;
32 -> 34 ;
35 [label="avg_distance <= 0.425\ngini = 0.5\nsamples = 16\nvalue = [8, 8]"] ;
29 -> 35 ;
36 [label="uppercase_letters <= 6.0\ngini = 0.2449\nsamples = 7\nvalue = [1, 6]"] ;
35 -> 36 ;
37 [label="gini = 0.0\nsamples = 5\nvalue = [0, 5]"] ;
36 -> 37 ;
38 [label="gini = 0.5\nsamples = 2\nvalue = [1, 1]"] ;
36 -> 38 ;
39 [label="max_distance <= 0.9716\ngini = 0.3457\nsamples = 9\nvalue = [7, 2]"] ;
35 -> 39 ;
40 [label="gini = 0.0\nsamples = 6\nvalue = [6, 0]"] ;
39 -> 40 ;
41 [label="gini = 0.4444\nsamples = 3\nvalue = [1, 2]"] ;
39 -> 41 ;
42 [label="gini = 0.0\nsamples = 26\nvalue = [0, 26]"] ;
28 -> 42 ;
}